digraph Tree {
node [shape=box] ;
0 [label="y_hist <= 1.486\nentropy = 2.321\nsamples = 2310\nvalue = [440, 472, 471, 455, 472]"] ;
1 [label="y_entropy <= 171.621\nentropy = 1.777\nsamples = 382\nvalue = [215, 80, 20, 36, 31]"] ;
0 -> 1 [labeldistance=2.5, labelangle=45, headlabel="True"] ;
2 [label="z_rfft <= 36.378\nentropy = 0.371\nsamples = 112\nvalue = [104, 8, 0, 0, 0]"] ;
1 -> 2 ;
3 [label="entropy = 0.0\nsamples = 8\nvalue = [0, 8, 0, 0, 0]"] ;
2 -> 3 ;
4 [label="entropy = 0.0\nsamples = 104\nvalue = [104, 0, 0, 0, 0]"] ;
2 -> 4 ;
5 [label="x_hist <= 1.191\nentropy = 2.06\nsamples = 270\nvalue = [111, 72, 20, 36, 31]"] ;
1 -> 5 ;
6 [label="x_mean <= 0.008\nentropy = 0.887\nsamples = 46\nvalue = [0, 32, 14, 0, 0]"] ;
5 -> 6 ;
7 [label="entropy = 0.0\nsamples = 32\nvalue = [0, 32, 0, 0, 0]"] ;
6 -> 7 ;
8 [label="entropy = 0.0\nsamples = 14\nvalue = [0, 0, 14, 0, 0]"] ;
6 -> 8 ;
9 [label="x_rfft <= -1.906\nentropy = 1.904\nsamples = 224\nvalue = [111, 40, 6, 36, 31]"] ;
5 -> 9 ;
10 [label="x_hist <= 3.105\nentropy = 0.29\nsamples = 59\nvalue = [56, 0, 3, 0, 0]"] ;
9 -> 10 ;
11 [label="entropy = 0.0\nsamples = 56\nvalue = [56, 0, 0, 0, 0]"] ;
10 -> 11 ;
12 [label="entropy = 0.0\nsamples = 3\nvalue = [0, 0, 3, 0, 0]"] ;
10 -> 12 ;
13 [label="x_mean <= -0.027\nentropy = 2.061\nsamples = 165\nvalue = [55, 40, 3, 36, 31]"] ;
9 -> 13 ;
14 [label="x_hist <= 2.343\nentropy = 1.332\nsamples = 43\nvalue = [0, 24, 2, 1, 16]"] ;
13 -> 14 ;
15 [label="z_hist <= 5.207\nentropy = 0.391\nsamples = 26\nvalue = [0, 24, 2, 0, 0]"] ;
14 -> 15 ;
16 [label="entropy = 0.0\nsamples = 2\nvalue = [0, 0, 2, 0, 0]"] ;
15 -> 16 ;
17 [label="entropy = 0.0\nsamples = 24\nvalue = [0, 24, 0, 0, 0]"] ;
15 -> 17 ;
18 [label="y_var <= 0.058\nentropy = 0.323\nsamples = 17\nvalue = [0, 0, 0, 1, 16]"] ;
14 -> 18 ;
19 [label="entropy = 0.0\nsamples = 1\nvalue = [0, 0, 0, 1, 0]"] ;
18 -> 19 ;
20 [label="entropy = 0.0\nsamples = 16\nvalue = [0, 0, 0, 0, 16]"] ;
18 -> 20 ;
21 [label="peaks_magnitude <= 0.5\nentropy = 1.848\nsamples = 122\nvalue = [55, 16, 1, 35, 15]"] ;
13 -> 21 ;
22 [label="y_hist <= 1.263\nentropy = 1.094\nsamples = 67\nvalue = [31, 0, 1, 35, 0]"] ;
21 -> 22 ;
23 [label="entropy = 0.0\nsamples = 28\nvalue = [0, 0, 0, 28, 0]"] ;
22 -> 23 ;
24 [label="z_rfft <= 44.75\nentropy = 0.844\nsamples = 39\nvalue = [31, 0, 1, 7, 0]"] ;
22 -> 24 ;
25 [label="z_rfft <= 23.821\nentropy = 0.605\nsamples = 35\nvalue = [31, 0, 1, 3, 0]"] ;
24 -> 25 ;
26 [label="entropy = 0.0\nsamples = 2\nvalue = [0, 0, 0, 2, 0]"] ;
25 -> 26 ;
27 [label="y_rfft <= 10.547\nentropy = 0.39\nsamples = 33\nvalue = [31, 0, 1, 1, 0]"] ;
25 -> 27 ;
28 [label="x_rfft <= 2.52\nentropy = 0.201\nsamples = 32\nvalue = [31, 0, 1, 0, 0]"] ;
27 -> 28 ;
29 [label="entropy = 0.0\nsamples = 23\nvalue = [23, 0, 0, 0, 0]"] ;
28 -> 29 ;
30 [label="z_hist <= 5.336\nentropy = 0.503\nsamples = 9\nvalue = [8, 0, 1, 0, 0]"] ;
28 -> 30 ;
31 [label="entropy = 0.0\nsamples = 1\nvalue = [0, 0, 1, 0, 0]"] ;
30 -> 31 ;
32 [label="entropy = 0.0\nsamples = 8\nvalue = [8, 0, 0, 0, 0]"] ;
30 -> 32 ;
33 [label="entropy = 0.0\nsamples = 1\nvalue = [0, 0, 0, 1, 0]"] ;
27 -> 33 ;
34 [label="entropy = 0.0\nsamples = 4\nvalue = [0, 0, 0, 4, 0]"] ;
24 -> 34 ;
35 [label="y_var <= 0.066\nentropy = 1.551\nsamples = 55\nvalue = [24, 16, 0, 0, 15]"] ;
21 -> 35 ;
36 [label="z_peaks <= 0.5\nentropy = 0.999\nsamples = 31\nvalue = [0, 16, 0, 0, 15]"] ;
35 -> 36 ;
37 [label="entropy = 0.0\nsamples = 16\nvalue = [0, 16, 0, 0, 0]"] ;
36 -> 37 ;
38 [label="entropy = 0.0\nsamples = 15\nvalue = [0, 0, 0, 0, 15]"] ;
36 -> 38 ;
39 [label="entropy = 0.0\nsamples = 24\nvalue = [24, 0, 0, 0, 0]"] ;
35 -> 39 ;
40 [label="z_hist <= 5.209\nentropy = 2.285\nsamples = 1928\nvalue = [225, 392, 451, 419, 441]"] ;
0 -> 40 [labeldistance=2.5, labelangle=-45, headlabel="False"] ;
41 [label="z_hist <= 0.172\nentropy = 2.037\nsamples = 302\nvalue = [114, 66, 23, 82, 17]"] ;
40 -> 41 ;
42 [label="entropy = 0.0\nsamples = 15\nvalue = [0, 0, 15, 0, 0]"] ;
41 -> 42 ;
43 [label="z_entropy <= 1647.47\nentropy = 1.919\nsamples = 287\nvalue = [114, 66, 8, 82, 17]"] ;
41 -> 43 ;
44 [label="z_entropy <= 28.306\nentropy = 1.651\nsamples = 157\nvalue = [90, 26, 0, 24, 17]"] ;
43 -> 44 ;
45 [label="y_rfft <= -0.596\nentropy = 0.337\nsamples = 16\nvalue = [0, 0, 0, 15, 1]"] ;
44 -> 45 ;
46 [label="entropy = 0.0\nsamples = 1\nvalue = [0, 0, 0, 0, 1]"] ;
45 -> 46 ;
47 [label="entropy = 0.0\nsamples = 15\nvalue = [0, 0, 0, 15, 0]"] ;
45 -> 47 ;
48 [label="z_var <= 0.004\nentropy = 1.473\nsamples = 141\nvalue = [90, 26, 0, 9, 16]"] ;
44 -> 48 ;
49 [label="x_entropy <= 539.537\nentropy = 1.862\nsamples = 82\nvalue = [32, 25, 0, 9, 16]"] ;
48 -> 49 ;
50 [label="y_entropy <= 688.16\nentropy = 1.643\nsamples = 42\nvalue = [1, 17, 0, 8, 16]"] ;
49 -> 50 ;
51 [label="z_var <= 0.004\nentropy = 1.124\nsamples = 25\nvalue = [0, 1, 0, 8, 16]"] ;
50 -> 51 ;
52 [label="x_mean <= -0.086\nentropy = 0.922\nsamples = 10\nvalue = [0, 1, 0, 8, 1]"] ;
51 -> 52 ;
53 [label="entropy = 0.0\nsamples = 1\nvalue = [0, 1, 0, 0, 0]"] ;
52 -> 53 ;
54 [label="z_hist <= 5.087\nentropy = 0.503\nsamples = 9\nvalue = [0, 0, 0, 8, 1]"] ;
52 -> 54 ;
55 [label="entropy = 0.0\nsamples = 8\nvalue = [0, 0, 0, 8, 0]"] ;
54 -> 55 ;
56 [label="entropy = 0.0\nsamples = 1\nvalue = [0, 0, 0, 0, 1]"] ;
54 -> 56 ;
57 [label="entropy = 0.0\nsamples = 15\nvalue = [0, 0, 0, 0, 15]"] ;
51 -> 57 ;
58 [label="x_entropy <= 453.015\nentropy = 0.323\nsamples = 17\nvalue = [1, 16, 0, 0, 0]"] ;
50 -> 58 ;
59 [label="entropy = 0.0\nsamples = 16\nvalue = [0, 16, 0, 0, 0]"] ;
58 -> 59 ;
60 [label="entropy = 0.0\nsamples = 1\nvalue = [1, 0, 0, 0, 0]"] ;
58 -> 60 ;
61 [label="z_hist <= 4.997\nentropy = 0.882\nsamples = 40\nvalue = [31, 8, 0, 1, 0]"] ;
49 -> 61 ;
62 [label="z_var <= 0.004\nentropy = 0.503\nsamples = 9\nvalue = [1, 8, 0, 0, 0]"] ;
61 -> 62 ;
63 [label="entropy = 0.0\nsamples = 8\nvalue = [0, 8, 0, 0, 0]"] ;
62 -> 63 ;
64 [label="entropy = 0.0\nsamples = 1\nvalue = [1, 0, 0, 0, 0]"] ;
62 -> 64 ;
65 [label="y_mean <= 0.597\nentropy = 0.206\nsamples = 31\nvalue = [30, 0, 0, 1, 0]"] ;
61 -> 65 ;
66 [label="entropy = 0.0\nsamples = 30\nvalue = [30, 0, 0, 0, 0]"] ;
65 -> 66 ;
67 [label="entropy = 0.0\nsamples = 1\nvalue = [0, 0, 0, 1, 0]"] ;
65 -> 67 ;
68 [label="x_entropy <= 374.313\nentropy = 0.124\nsamples = 59\nvalue = [58, 1, 0, 0, 0]"] ;
48 -> 68 ;
69 [label="y_hist <= 2.927\nentropy = 0.503\nsamples = 9\nvalue = [8, 1, 0, 0, 0]"] ;
68 -> 69 ;
70 [label="entropy = 0.0\nsamples = 1\nvalue = [0, 1, 0, 0, 0]"] ;
69 -> 70 ;
71 [label="entropy = 0.0\nsamples = 8\nvalue = [8, 0, 0, 0, 0]"] ;
69 -> 71 ;
72 [label="entropy = 0.0\nsamples = 50\nvalue = [50, 0, 0, 0, 0]"] ;
68 -> 72 ;
73 [label="x_rfft <= -2.752\nentropy = 1.74\nsamples = 130\nvalue = [24, 40, 8, 58, 0]"] ;
43 -> 73 ;
74 [label="z_rfft <= 68.045\nentropy = 0.503\nsamples = 27\nvalue = [0, 24, 3, 0, 0]"] ;
73 -> 74 ;
75 [label="entropy = 0.0\nsamples = 3\nvalue = [0, 0, 3, 0, 0]"] ;
74 -> 75 ;
76 [label="entropy = 0.0\nsamples = 24\nvalue = [0, 24, 0, 0, 0]"] ;
74 -> 76 ;
77 [label="y_entropy <= 1406.999\nentropy = 1.585\nsamples = 103\nvalue = [24, 16, 5, 58, 0]"] ;
73 -> 77 ;
78 [label="z_entropy <= 1680.905\nentropy = 1.245\nsamples = 84\nvalue = [24, 1, 5, 54, 0]"] ;
77 -> 78 ;
79 [label="x_hist <= 3.444\nentropy = 0.187\nsamples = 35\nvalue = [1, 0, 0, 34, 0]"] ;
78 -> 79 ;
80 [label="entropy = 0.0\nsamples = 31\nvalue = [0, 0, 0, 31, 0]"] ;
79 -> 80 ;
81 [label="z_hist <= 5.113\nentropy = 0.811\nsamples = 4\nvalue = [1, 0, 0, 3, 0]"] ;
79 -> 81 ;
82 [label="entropy = 0.0\nsamples = 1\nvalue = [1, 0, 0, 0, 0]"] ;
81 -> 82 ;
83 [label="entropy = 0.0\nsamples = 3\nvalue = [0, 0, 0, 3, 0]"] ;
81 -> 83 ;
84 [label="y_var <= 0.014\nentropy = 1.49\nsamples = 49\nvalue = [23, 1, 5, 20, 0]"] ;
78 -> 84 ;
85 [label="x_var <= 0.006\nentropy = 1.053\nsamples = 15\nvalue = [0, 1, 3, 11, 0]"] ;
84 -> 85 ;
86 [label="y_entropy <= 803.69\nentropy = 0.971\nsamples = 5\nvalue = [0, 0, 3, 2, 0]"] ;
85 -> 86 ;
87 [label="entropy = 0.0\nsamples = 2\nvalue = [0, 0, 0, 2, 0]"] ;
86 -> 87 ;
88 [label="entropy = 0.0\nsamples = 3\nvalue = [0, 0, 3, 0, 0]"] ;
86 -> 88 ;
89 [label="z_var <= 0.003\nentropy = 0.469\nsamples = 10\nvalue = [0, 1, 0, 9, 0]"] ;
85 -> 89 ;
90 [label="entropy = 0.0\nsamples = 1\nvalue = [0, 1, 0, 0, 0]"] ;
89 -> 90 ;
91 [label="entropy = 0.0\nsamples = 9\nvalue = [0, 0, 0, 9, 0]"] ;
89 -> 91 ;
92 [label="y_entropy <= 542.397\nentropy = 1.129\nsamples = 34\nvalue = [23, 0, 2, 9, 0]"] ;
84 -> 92 ;
93 [label="x_rfft <= 0.828\nentropy = 0.764\nsamples = 9\nvalue = [0, 0, 2, 7, 0]"] ;
92 -> 93 ;
94 [label="y_hist <= 1.995\nentropy = 0.918\nsamples = 3\nvalue = [0, 0, 2, 1, 0]"] ;
93 -> 94 ;
95 [label="entropy = 0.0\nsamples = 2\nvalue = [0, 0, 2, 0, 0]"] ;
94 -> 95 ;
96 [label="entropy = 0.0\nsamples = 1\nvalue = [0, 0, 0, 1, 0]"] ;
94 -> 96 ;
97 [label="entropy = 0.0\nsamples = 6\nvalue = [0, 0, 0, 6, 0]"] ;
93 -> 97 ;
98 [label="x_mean <= -0.078\nentropy = 0.402\nsamples = 25\nvalue = [23, 0, 0, 2, 0]"] ;
92 -> 98 ;
99 [label="entropy = 0.0\nsamples = 1\nvalue = [0, 0, 0, 1, 0]"] ;
98 -> 99 ;
100 [label="z_entropy <= 1697.565\nentropy = 0.25\nsamples = 24\nvalue = [23, 0, 0, 1, 0]"] ;
98 -> 100 ;
101 [label="entropy = 0.0\nsamples = 23\nvalue = [23, 0, 0, 0, 0]"] ;
100 -> 101 ;
102 [label="entropy = 0.0\nsamples = 1\nvalue = [0, 0, 0, 1, 0]"] ;
100 -> 102 ;
103 [label="x_mean <= 0.022\nentropy = 0.742\nsamples = 19\nvalue = [0, 15, 0, 4, 0]"] ;
77 -> 103 ;
104 [label="entropy = 0.0\nsamples = 15\nvalue = [0, 15, 0, 0, 0]"] ;
103 -> 104 ;
105 [label="entropy = 0.0\nsamples = 4\nvalue = [0, 0, 0, 4, 0]"] ;
103 -> 105 ;
106 [label="y_rfft <= 1.164\nentropy = 2.212\nsamples = 1626\nvalue = [111, 326, 428, 337, 424]"] ;
40 -> 106 ;
107 [label="x_rfft <= -0.343\nentropy = 2.184\nsamples = 1086\nvalue = [102, 135, 323, 198, 328]"] ;
106 -> 107 ;
108 [label="z_rfft <= 91.539\nentropy = 2.145\nsamples = 631\nvalue = [23, 135, 167, 137, 169]"] ;
107 -> 108 ;
109 [label="y_entropy <= 872.989\nentropy = 2.087\nsamples = 501\nvalue = [15, 95, 167, 135, 89]"] ;
108 -> 109 ;
110 [label="x_mean <= -0.231\nentropy = 2.03\nsamples = 232\nvalue = [8, 32, 37, 66, 89]"] ;
109 -> 110 ;
111 [label="x_mean <= -0.245\nentropy = 1.0\nsamples = 16\nvalue = [8, 8, 0, 0, 0]"] ;
110 -> 111 ;
112 [label="entropy = 0.0\nsamples = 8\nvalue = [8, 0, 0, 0, 0]"] ;
111 -> 112 ;
113 [label="entropy = 0.0\nsamples = 8\nvalue = [0, 8, 0, 0, 0]"] ;
111 -> 113 ;
114 [label="y_mean <= -0.265\nentropy = 1.838\nsamples = 216\nvalue = [0, 24, 37, 66, 89]"] ;
110 -> 114 ;
115 [label="x_mean <= -0.094\nentropy = 1.516\nsamples = 41\nvalue = [0, 16, 0, 17, 8]"] ;
114 -> 115 ;
116 [label="y_entropy <= 729.031\nentropy = 0.323\nsamples = 17\nvalue = [0, 16, 0, 1, 0]"] ;
115 -> 116 ;
117 [label="entropy = 0.0\nsamples = 16\nvalue = [0, 16, 0, 0, 0]"] ;
116 -> 117 ;
118 [label="entropy = 0.0\nsamples = 1\nvalue = [0, 0, 0, 1, 0]"] ;
116 -> 118 ;
119 [label="y_rfft <= -8.333\nentropy = 0.918\nsamples = 24\nvalue = [0, 0, 0, 16, 8]"] ;
115 -> 119 ;
120 [label="entropy = 0.0\nsamples = 8\nvalue = [0, 0, 0, 0, 8]"] ;
119 -> 120 ;
121 [label="entropy = 0.0\nsamples = 16\nvalue = [0, 0, 0, 16, 0]"] ;
119 -> 121 ;
122 [label="y_hist <= 2.809\nentropy = 1.706\nsamples = 175\nvalue = [0, 8, 37, 49, 81]"] ;
114 -> 122 ;
123 [label="peaks_magnitude <= 0.5\nentropy = 1.579\nsamples = 123\nvalue = [0, 0, 37, 46, 40]"] ;
122 -> 123 ;
124 [label="z_var <= 0.003\nentropy = 1.368\nsamples = 80\nvalue = [0, 0, 37, 35, 8]"] ;
123 -> 124 ;
125 [label="entropy = 0.0\nsamples = 8\nvalue = [0, 0, 0, 0, 8]"] ;
124 -> 125 ;
126 [label="x_rfft <= -1.374\nentropy = 0.999\nsamples = 72\nvalue = [0, 0, 37, 35, 0]"] ;
124 -> 126 ;
127 [label="entropy = 0.661\nsamples = 35\nvalue = [0, 0, 29, 6, 0]"] ;
126 -> 127 ;
128 [label="entropy = 0.753\nsamples = 37\nvalue = [0, 0, 8, 29, 0]"] ;
126 -> 128 ;
129 [label="z_rfft <= 88.435\nentropy = 0.82\nsamples = 43\nvalue = [0, 0, 0, 11, 32]"] ;
123 -> 129 ;
130 [label="entropy = 0.0\nsamples = 32\nvalue = [0, 0, 0, 0, 32]"] ;
129 -> 130 ;
131 [label="entropy = 0.0\nsamples = 11\nvalue = [0, 0, 0, 11, 0]"] ;
129 -> 131 ;
132 [label="z_rfft <= 21.329\nentropy = 0.923\nsamples = 52\nvalue = [0, 8, 0, 3, 41]"] ;
122 -> 132 ;
133 [label="entropy = 0.0\nsamples = 8\nvalue = [0, 8, 0, 0, 0]"] ;
132 -> 133 ;
134 [label="y_rfft <= -2.128\nentropy = 0.359\nsamples = 44\nvalue = [0, 0, 0, 3, 41]"] ;
132 -> 134 ;
135 [label="z_rfft <= 80.666\nentropy = 0.845\nsamples = 11\nvalue = [0, 0, 0, 3, 8]"] ;
134 -> 135 ;
136 [label="entropy = 0.0\nsamples = 3\nvalue = [0, 0, 0, 3, 0]"] ;
135 -> 136 ;
137 [label="entropy = 0.0\nsamples = 8\nvalue = [0, 0, 0, 0, 8]"] ;
135 -> 137 ;
138 [label="entropy = 0.0\nsamples = 33\nvalue = [0, 0, 0, 0, 33]"] ;
134 -> 138 ;
139 [label="y_mean <= -0.154\nentropy = 1.638\nsamples = 269\nvalue = [7, 63, 130, 69, 0]"] ;
109 -> 139 ;
140 [label="z_hist <= 5.291\nentropy = 1.194\nsamples = 107\nvalue = [7, 0, 32, 68, 0]"] ;
139 -> 140 ;
141 [label="y_entropy <= 1018.938\nentropy = 0.165\nsamples = 41\nvalue = [0, 0, 1, 40, 0]"] ;
140 -> 141 ;
142 [label="entropy = 0.0\nsamples = 1\nvalue = [0, 0, 1, 0, 0]"] ;
141 -> 142 ;
143 [label="entropy = 0.0\nsamples = 40\nvalue = [0, 0, 0, 40, 0]"] ;
141 -> 143 ;
144 [label="y_mean <= -0.336\nentropy = 1.38\nsamples = 66\nvalue = [7, 0, 31, 28, 0]"] ;
140 -> 144 ;
145 [label="y_rfft <= -7.952\nentropy = 0.881\nsamples = 10\nvalue = [7, 0, 0, 3, 0]"] ;
144 -> 145 ;
146 [label="entropy = 0.0\nsamples = 3\nvalue = [0, 0, 0, 3, 0]"] ;
145 -> 146 ;
147 [label="entropy = 0.0\nsamples = 7\nvalue = [7, 0, 0, 0, 0]"] ;
145 -> 147 ;
148 [label="x_entropy <= 341.59\nentropy = 0.992\nsamples = 56\nvalue = [0, 0, 31, 25, 0]"] ;
144 -> 148 ;
149 [label="entropy = 0.0\nsamples = 15\nvalue = [0, 0, 0, 15, 0]"] ;
148 -> 149 ;
150 [label="z_rfft <= 75.197\nentropy = 0.801\nsamples = 41\nvalue = [0, 0, 31, 10, 0]"] ;
148 -> 150 ;
151 [label="z_rfft <= 14.767\nentropy = 0.581\nsamples = 36\nvalue = [0, 0, 31, 5, 0]"] ;
150 -> 151 ;
152 [label="entropy = 0.0\nsamples = 4\nvalue = [0, 0, 0, 4, 0]"] ;
151 -> 152 ;
153 [label="entropy = 0.201\nsamples = 32\nvalue = [0, 0, 31, 1, 0]"] ;
151 -> 153 ;
154 [label="entropy = 0.0\nsamples = 5\nvalue = [0, 0, 0, 5, 0]"] ;
150 -> 154 ;
155 [label="y_mean <= -0.079\nentropy = 1.014\nsamples = 162\nvalue = [0, 63, 98, 1, 0]"] ;
139 -> 155 ;
156 [label="z_mean <= 3.048\nentropy = 0.131\nsamples = 55\nvalue = [0, 0, 54, 1, 0]"] ;
155 -> 156 ;
157 [label="entropy = 0.0\nsamples = 1\nvalue = [0, 0, 0, 1, 0]"] ;
156 -> 157 ;
158 [label="entropy = 0.0\nsamples = 54\nvalue = [0, 0, 54, 0, 0]"] ;
156 -> 158 ;
159 [label="z_mean <= 3.904\nentropy = 0.977\nsamples = 107\nvalue = [0, 63, 44, 0, 0]"] ;
155 -> 159 ;
160 [label="x_hist <= 1.759\nentropy = 0.838\nsamples = 86\nvalue = [0, 63, 23, 0, 0]"] ;
159 -> 160 ;
161 [label="entropy = 0.0\nsamples = 14\nvalue = [0, 0, 14, 0, 0]"] ;
160 -> 161 ;
162 [label="x_var <= 0.008\nentropy = 0.544\nsamples = 72\nvalue = [0, 63, 9, 0, 0]"] ;
160 -> 162 ;
163 [label="entropy = 0.0\nsamples = 6\nvalue = [0, 0, 6, 0, 0]"] ;
162 -> 163 ;
164 [label="y_var <= 0.008\nentropy = 0.267\nsamples = 66\nvalue = [0, 63, 3, 0, 0]"] ;
162 -> 164 ;
165 [label="entropy = 0.0\nsamples = 63\nvalue = [0, 63, 0, 0, 0]"] ;
164 -> 165 ;
166 [label="entropy = 0.0\nsamples = 3\nvalue = [0, 0, 3, 0, 0]"] ;
164 -> 166 ;
167 [label="entropy = 0.0\nsamples = 21\nvalue = [0, 0, 21, 0, 0]"] ;
159 -> 167 ;
168 [label="y_entropy <= 862.976\nentropy = 1.294\nsamples = 130\nvalue = [8, 40, 0, 2, 80]"] ;
108 -> 168 ;
169 [label="entropy = 0.0\nsamples = 32\nvalue = [0, 32, 0, 0, 0]"] ;
168 -> 169 ;
170 [label="y_mean <= -0.157\nentropy = 0.944\nsamples = 98\nvalue = [8, 8, 0, 2, 80]"] ;
168 -> 170 ;
171 [label="x_hist <= 1.785\nentropy = 0.439\nsamples = 88\nvalue = [0, 8, 0, 0, 80]"] ;
170 -> 171 ;
172 [label="entropy = 0.0\nsamples = 8\nvalue = [0, 8, 0, 0, 0]"] ;
171 -> 172 ;
173 [label="entropy = 0.0\nsamples = 80\nvalue = [0, 0, 0, 0, 80]"] ;
171 -> 173 ;
174 [label="z_mean <= 5.191\nentropy = 0.722\nsamples = 10\nvalue = [8, 0, 0, 2, 0]"] ;
170 -> 174 ;
175 [label="entropy = 0.0\nsamples = 8\nvalue = [8, 0, 0, 0, 0]"] ;
174 -> 175 ;
176 [label="entropy = 0.0\nsamples = 2\nvalue = [0, 0, 0, 2, 0]"] ;
174 -> 176 ;
177 [label="z_rfft <= 83.713\nentropy = 1.887\nsamples = 455\nvalue = [79, 0, 156, 61, 159]"] ;
107 -> 177 ;
178 [label="y_mean <= -0.067\nentropy = 1.832\nsamples = 340\nvalue = [63, 0, 70, 48, 159]"] ;
177 -> 178 ;
179 [label="z_mean <= 3.811\nentropy = 1.511\nsamples = 83\nvalue = [0, 0, 36, 31, 16]"] ;
178 -> 179 ;
180 [label="z_mean <= 2.858\nentropy = 0.994\nsamples = 66\nvalue = [0, 0, 36, 30, 0]"] ;
179 -> 180 ;
181 [label="z_entropy <= 1718.436\nentropy = 0.811\nsamples = 48\nvalue = [0, 0, 36, 12, 0]"] ;
180 -> 181 ;
182 [label="entropy = 0.0\nsamples = 9\nvalue = [0, 0, 0, 9, 0]"] ;
181 -> 182 ;
183 [label="z_rfft <= 56.801\nentropy = 0.391\nsamples = 39\nvalue = [0, 0, 36, 3, 0]"] ;
181 -> 183 ;
184 [label="y_mean <= -0.213\nentropy = 0.183\nsamples = 36\nvalue = [0, 0, 35, 1, 0]"] ;
183 -> 184 ;
185 [label="entropy = 0.0\nsamples = 1\nvalue = [0, 0, 0, 1, 0]"] ;
184 -> 185 ;
186 [label="entropy = 0.0\nsamples = 35\nvalue = [0, 0, 35, 0, 0]"] ;
184 -> 186 ;
187 [label="y_entropy <= 959.103\nentropy = 0.918\nsamples = 3\nvalue = [0, 0, 1, 2, 0]"] ;
183 -> 187 ;
188 [label="entropy = 0.0\nsamples = 1\nvalue = [0, 0, 1, 0, 0]"] ;
187 -> 188 ;
189 [label="entropy = 0.0\nsamples = 2\nvalue = [0, 0, 0, 2, 0]"] ;
187 -> 189 ;
190 [label="entropy = 0.0\nsamples = 18\nvalue = [0, 0, 0, 18, 0]"] ;
180 -> 190 ;
191 [label="x_entropy <= 643.337\nentropy = 0.323\nsamples = 17\nvalue = [0, 0, 0, 1, 16]"] ;
179 -> 191 ;
192 [label="entropy = 0.0\nsamples = 16\nvalue = [0, 0, 0, 0, 16]"] ;
191 -> 192 ;
193 [label="entropy = 0.0\nsamples = 1\nvalue = [0, 0, 0, 1, 0]"] ;
191 -> 193 ;
194 [label="z_rfft <= 17.404\nentropy = 1.613\nsamples = 257\nvalue = [63, 0, 34, 17, 143]"] ;
178 -> 194 ;
195 [label="x_rfft <= 0.86\nentropy = 1.6\nsamples = 149\nvalue = [63, 0, 9, 13, 64]"] ;
194 -> 195 ;
196 [label="y_entropy <= 2331.753\nentropy = 1.081\nsamples = 98\nvalue = [31, 0, 3, 0, 64]"] ;
195 -> 196 ;
197 [label="y_entropy <= 1429.623\nentropy = 1.197\nsamples = 50\nvalue = [31, 0, 3, 0, 16]"] ;
196 -> 197 ;
198 [label="entropy = 0.0\nsamples = 16\nvalue = [0, 0, 0, 0, 16]"] ;
197 -> 198 ;
199 [label="x_var <= 0.021\nentropy = 0.431\nsamples = 34\nvalue = [31, 0, 3, 0, 0]"] ;
197 -> 199 ;
200 [label="entropy = 0.0\nsamples = 31\nvalue = [31, 0, 0, 0, 0]"] ;
199 -> 200 ;
201 [label="entropy = 0.0\nsamples = 3\nvalue = [0, 0, 3, 0, 0]"] ;
199 -> 201 ;
202 [label="entropy = 0.0\nsamples = 48\nvalue = [0, 0, 0, 0, 48]"] ;
196 -> 202 ;
203 [label="x_hist <= 2.956\nentropy = 1.288\nsamples = 51\nvalue = [32, 0, 6, 13, 0]"] ;
195 -> 203 ;
204 [label="x_entropy <= 584.199\nentropy = 0.985\nsamples = 14\nvalue = [0, 0, 6, 8, 0]"] ;
203 -> 204 ;
205 [label="entropy = 0.0\nsamples = 6\nvalue = [0, 0, 6, 0, 0]"] ;
204 -> 205 ;
206 [label="entropy = 0.0\nsamples = 8\nvalue = [0, 0, 0, 8, 0]"] ;
204 -> 206 ;
207 [label="z_var <= 0.003\nentropy = 0.571\nsamples = 37\nvalue = [32, 0, 0, 5, 0]"] ;
203 -> 207 ;
208 [label="entropy = 0.0\nsamples = 5\nvalue = [0, 0, 0, 5, 0]"] ;
207 -> 208 ;
209 [label="entropy = 0.0\nsamples = 32\nvalue = [32, 0, 0, 0, 0]"] ;
207 -> 209 ;
210 [label="z_mean <= 2.515\nentropy = 0.995\nsamples = 108\nvalue = [0, 0, 25, 4, 79]"] ;
194 -> 210 ;
211 [label="z_mean <= 1.173\nentropy = 0.784\nsamples = 99\nvalue = [0, 0, 19, 1, 79]"] ;
210 -> 211 ;
212 [label="y_rfft <= 0.078\nentropy = 0.995\nsamples = 35\nvalue = [0, 0, 19, 0, 16]"] ;
211 -> 212 ;
213 [label="y_var <= 0.008\nentropy = 0.629\nsamples = 19\nvalue = [0, 0, 3, 0, 16]"] ;
212 -> 213 ;
214 [label="entropy = 0.0\nsamples = 16\nvalue = [0, 0, 0, 0, 16]"] ;
213 -> 214 ;
215 [label="entropy = 0.0\nsamples = 3\nvalue = [0, 0, 3, 0, 0]"] ;
213 -> 215 ;
216 [label="entropy = 0.0\nsamples = 16\nvalue = [0, 0, 16, 0, 0]"] ;
212 -> 216 ;
217 [label="z_var <= 0.003\nentropy = 0.116\nsamples = 64\nvalue = [0, 0, 0, 1, 63]"] ;
211 -> 217 ;
218 [label="entropy = 0.0\nsamples = 63\nvalue = [0, 0, 0, 0, 63]"] ;
217 -> 218 ;
219 [label="entropy = 0.0\nsamples = 1\nvalue = [0, 0, 0, 1, 0]"] ;
217 -> 219 ;
220 [label="y_entropy <= 950.527\nentropy = 0.918\nsamples = 9\nvalue = [0, 0, 6, 3, 0]"] ;
210 -> 220 ;
221 [label="entropy = 0.0\nsamples = 3\nvalue = [0, 0, 0, 3, 0]"] ;
220 -> 221 ;
222 [label="entropy = 0.0\nsamples = 6\nvalue = [0, 0, 6, 0, 0]"] ;
220 -> 222 ;
223 [label="x_entropy <= 1047.705\nentropy = 1.065\nsamples = 115\nvalue = [16, 0, 86, 13, 0]"] ;
177 -> 223 ;
224 [label="z_mean <= 5.231\nentropy = 1.483\nsamples = 35\nvalue = [16, 0, 6, 13, 0]"] ;
223 -> 224 ;
225 [label="x_entropy <= 506.836\nentropy = 0.9\nsamples = 19\nvalue = [0, 0, 6, 13, 0]"] ;
224 -> 225 ;
226 [label="entropy = 0.0\nsamples = 7\nvalue = [0, 0, 0, 7, 0]"] ;
225 -> 226 ;
227 [label="z_mean <= 4.997\nentropy = 1.0\nsamples = 12\nvalue = [0, 0, 6, 6, 0]"] ;
225 -> 227 ;
228 [label="entropy = 0.0\nsamples = 6\nvalue = [0, 0, 6, 0, 0]"] ;
227 -> 228 ;
229 [label="entropy = 0.0\nsamples = 6\nvalue = [0, 0, 0, 6, 0]"] ;
227 -> 229 ;
230 [label="entropy = 0.0\nsamples = 16\nvalue = [16, 0, 0, 0, 0]"] ;
224 -> 230 ;
231 [label="entropy = 0.0\nsamples = 80\nvalue = [0, 0, 80, 0, 0]"] ;
223 -> 231 ;
232 [label="z_rfft <= 48.112\nentropy = 2.035\nsamples = 540\nvalue = [9, 191, 105, 139, 96]"] ;
106 -> 232 ;
233 [label="z_mean <= 1.036\nentropy = 1.61\nsamples = 212\nvalue = [1, 72, 80, 59, 0]"] ;
232 -> 233 ;
234 [label="x_entropy <= 900.881\nentropy = 0.716\nsamples = 71\nvalue = [0, 57, 0, 14, 0]"] ;
233 -> 234 ;
235 [label="y_entropy <= 1796.365\nentropy = 0.353\nsamples = 60\nvalue = [0, 56, 0, 4, 0]"] ;
234 -> 235 ;
236 [label="x_rfft <= 2.026\nentropy = 0.127\nsamples = 57\nvalue = [0, 56, 0, 1, 0]"] ;
235 -> 236 ;
237 [label="entropy = 0.0\nsamples = 48\nvalue = [0, 48, 0, 0, 0]"] ;
236 -> 237 ;
238 [label="z_entropy <= 1752.116\nentropy = 0.503\nsamples = 9\nvalue = [0, 8, 0, 1, 0]"] ;
236 -> 238 ;
239 [label="entropy = 0.0\nsamples = 1\nvalue = [0, 0, 0, 1, 0]"] ;
238 -> 239 ;
240 [label="entropy = 0.0\nsamples = 8\nvalue = [0, 8, 0, 0, 0]"] ;
238 -> 240 ;
241 [label="entropy = 0.0\nsamples = 3\nvalue = [0, 0, 0, 3, 0]"] ;
235 -> 241 ;
242 [label="y_rfft <= 3.301\nentropy = 0.439\nsamples = 11\nvalue = [0, 1, 0, 10, 0]"] ;
234 -> 242 ;
243 [label="entropy = 0.0\nsamples = 10\nvalue = [0, 0, 0, 10, 0]"] ;
242 -> 243 ;
244 [label="entropy = 0.0\nsamples = 1\nvalue = [0, 1, 0, 0, 0]"] ;
242 -> 244 ;
245 [label="x_entropy <= 801.339\nentropy = 1.384\nsamples = 141\nvalue = [1, 15, 80, 45, 0]"] ;
233 -> 245 ;
246 [label="x_rfft <= -0.805\nentropy = 1.201\nsamples = 121\nvalue = [1, 7, 80, 33, 0]"] ;
245 -> 246 ;
247 [label="y_var <= 0.024\nentropy = 0.746\nsamples = 33\nvalue = [0, 7, 26, 0, 0]"] ;
246 -> 247 ;
248 [label="entropy = 0.0\nsamples = 23\nvalue = [0, 0, 23, 0, 0]"] ;
247 -> 248 ;
249 [label="x_mean <= -0.072\nentropy = 0.881\nsamples = 10\nvalue = [0, 7, 3, 0, 0]"] ;
247 -> 249 ;
250 [label="entropy = 0.0\nsamples = 7\nvalue = [0, 7, 0, 0, 0]"] ;
249 -> 250 ;
251 [label="entropy = 0.0\nsamples = 3\nvalue = [0, 0, 3, 0, 0]"] ;
249 -> 251 ;
252 [label="z_hist <= 5.407\nentropy = 1.036\nsamples = 88\nvalue = [1, 0, 54, 33, 0]"] ;
246 -> 252 ;
253 [label="y_var <= 0.013\nentropy = 0.828\nsamples = 69\nvalue = [0, 0, 51, 18, 0]"] ;
252 -> 253 ;
254 [label="y_rfft <= 3.084\nentropy = 0.997\nsamples = 30\nvalue = [0, 0, 14, 16, 0]"] ;
253 -> 254 ;
255 [label="entropy = 0.0\nsamples = 14\nvalue = [0, 0, 14, 0, 0]"] ;
254 -> 255 ;
256 [label="entropy = 0.0\nsamples = 16\nvalue = [0, 0, 0, 16, 0]"] ;
254 -> 256 ;
257 [label="x_entropy <= 547.718\nentropy = 0.292\nsamples = 39\nvalue = [0, 0, 37, 2, 0]"] ;
253 -> 257 ;
258 [label="entropy = 0.0\nsamples = 32\nvalue = [0, 0, 32, 0, 0]"] ;
257 -> 258 ;
259 [label="x_hist <= 2.219\nentropy = 0.863\nsamples = 7\nvalue = [0, 0, 5, 2, 0]"] ;
257 -> 259 ;
260 [label="entropy = 0.0\nsamples = 2\nvalue = [0, 0, 0, 2, 0]"] ;
259 -> 260 ;
261 [label="entropy = 0.0\nsamples = 5\nvalue = [0, 0, 5, 0, 0]"] ;
259 -> 261 ;
262 [label="y_rfft <= 3.956\nentropy = 0.913\nsamples = 19\nvalue = [1, 0, 3, 15, 0]"] ;
252 -> 262 ;
263 [label="z_var <= 0.003\nentropy = 0.811\nsamples = 4\nvalue = [0, 0, 3, 1, 0]"] ;
262 -> 263 ;
264 [label="entropy = 0.0\nsamples = 1\nvalue = [0, 0, 0, 1, 0]"] ;
263 -> 264 ;
265 [label="entropy = 0.0\nsamples = 3\nvalue = [0, 0, 3, 0, 0]"] ;
263 -> 265 ;
266 [label="y_var <= 0.031\nentropy = 0.353\nsamples = 15\nvalue = [1, 0, 0, 14, 0]"] ;
262 -> 266 ;
267 [label="entropy = 0.0\nsamples = 14\nvalue = [0, 0, 0, 14, 0]"] ;
266 -> 267 ;
268 [label="entropy = 0.0\nsamples = 1\nvalue = [1, 0, 0, 0, 0]"] ;
266 -> 268 ;
269 [label="x_rfft <= -0.294\nentropy = 0.971\nsamples = 20\nvalue = [0, 8, 0, 12, 0]"] ;
245 -> 269 ;
270 [label="entropy = 0.0\nsamples = 12\nvalue = [0, 0, 0, 12, 0]"] ;
269 -> 270 ;
271 [label="entropy = 0.0\nsamples = 8\nvalue = [0, 8, 0, 0, 0]"] ;
269 -> 271 ;
272 [label="z_rfft <= 77.794\nentropy = 1.96\nsamples = 328\nvalue = [8, 119, 25, 80, 96]"] ;
232 -> 272 ;
273 [label="x_rfft <= -1.275\nentropy = 1.22\nsamples = 175\nvalue = [8, 79, 0, 0, 88]"] ;
272 -> 273 ;
274 [label="z_hist <= 5.546\nentropy = 0.78\nsamples = 49\nvalue = [8, 1, 0, 0, 40]"] ;
273 -> 274 ;
275 [label="y_rfft <= 2.416\nentropy = 0.165\nsamples = 41\nvalue = [0, 1, 0, 0, 40]"] ;
274 -> 275 ;
276 [label="z_mean <= 3.138\nentropy = 1.0\nsamples = 2\nvalue = [0, 1, 0, 0, 1]"] ;
275 -> 276 ;
277 [label="entropy = 0.0\nsamples = 1\nvalue = [0, 0, 0, 0, 1]"] ;
276 -> 277 ;
278 [label="entropy = 0.0\nsamples = 1\nvalue = [0, 1, 0, 0, 0]"] ;
276 -> 278 ;
279 [label="entropy = 0.0\nsamples = 39\nvalue = [0, 0, 0, 0, 39]"] ;
275 -> 279 ;
280 [label="entropy = 0.0\nsamples = 8\nvalue = [8, 0, 0, 0, 0]"] ;
274 -> 280 ;
281 [label="x_hist <= 2.857\nentropy = 0.959\nsamples = 126\nvalue = [0, 78, 0, 0, 48]"] ;
273 -> 281 ;
282 [label="x_hist <= 1.949\nentropy = 0.99\nsamples = 86\nvalue = [0, 38, 0, 0, 48]"] ;
281 -> 282 ;
283 [label="x_mean <= -0.02\nentropy = 0.667\nsamples = 46\nvalue = [0, 38, 0, 0, 8]"] ;
282 -> 283 ;
284 [label="x_mean <= -0.038\nentropy = 1.0\nsamples = 16\nvalue = [0, 8, 0, 0, 8]"] ;
283 -> 284 ;
285 [label="entropy = 0.0\nsamples = 8\nvalue = [0, 8, 0, 0, 0]"] ;
284 -> 285 ;
286 [label="entropy = 0.0\nsamples = 8\nvalue = [0, 0, 0, 0, 8]"] ;
284 -> 286 ;
287 [label="entropy = 0.0\nsamples = 30\nvalue = [0, 30, 0, 0, 0]"] ;
283 -> 287 ;
288 [label="entropy = 0.0\nsamples = 40\nvalue = [0, 0, 0, 0, 40]"] ;
282 -> 288 ;
289 [label="entropy = 0.0\nsamples = 40\nvalue = [0, 40, 0, 0, 0]"] ;
281 -> 289 ;
290 [label="y_var <= 0.013\nentropy = 1.645\nsamples = 153\nvalue = [0, 40, 25, 80, 8]"] ;
272 -> 290 ;
291 [label="y_mean <= 0.143\nentropy = 1.179\nsamples = 100\nvalue = [0, 8, 25, 67, 0]"] ;
290 -> 291 ;
292 [label="y_hist <= 3.044\nentropy = 0.927\nsamples = 38\nvalue = [0, 0, 25, 13, 0]"] ;
291 -> 292 ;
293 [label="entropy = 0.0\nsamples = 13\nvalue = [0, 0, 0, 13, 0]"] ;
292 -> 293 ;
294 [label="entropy = 0.0\nsamples = 25\nvalue = [0, 0, 25, 0, 0]"] ;
292 -> 294 ;
295 [label="y_var <= 0.003\nentropy = 0.555\nsamples = 62\nvalue = [0, 8, 0, 54, 0]"] ;
291 -> 295 ;
296 [label="entropy = 0.0\nsamples = 8\nvalue = [0, 8, 0, 0, 0]"] ;
295 -> 296 ;
297 [label="entropy = 0.0\nsamples = 54\nvalue = [0, 0, 0, 54, 0]"] ;
295 -> 297 ;
298 [label="z_mean <= 5.031\nentropy = 1.349\nsamples = 53\nvalue = [0, 32, 0, 13, 8]"] ;
290 -> 298 ;
299 [label="entropy = 0.0\nsamples = 12\nvalue = [0, 0, 0, 12, 0]"] ;
298 -> 299 ;
300 [label="z_mean <= 5.648\nentropy = 0.87\nsamples = 41\nvalue = [0, 32, 0, 1, 8]"] ;
298 -> 300 ;
301 [label="y_hist <= 2.675\nentropy = 0.196\nsamples = 33\nvalue = [0, 32, 0, 1, 0]"] ;
300 -> 301 ;
302 [label="entropy = 0.0\nsamples = 32\nvalue = [0, 32, 0, 0, 0]"] ;
301 -> 302 ;
303 [label="entropy = 0.0\nsamples = 1\nvalue = [0, 0, 0, 1, 0]"] ;
301 -> 303 ;
304 [label="entropy = 0.0\nsamples = 8\nvalue = [0, 0, 0, 0, 8]"] ;
300 -> 304 ;
}